[[ 0.0910999 ]
 [ 0.17795779]
 [-0.22568509]
 [-0.2791714 ]
 [ 0.2262491 ]
 [ 0.2202984 ]
 [ 0.42604893]
 [ 0.04300527]
 [ 0.06612936]
 [-0.32477856]
 [-0.2894781 ]
 [-0.06197631]
 [-0.07525688]
 [-0.04444076]
 [ 0.03882277]
 [ 0.13687854]
 [ 0.10620682]
 [ 0.12065307]
 [-0.1901331 ]
 [ 0.02077155]
 [ 0.18962985]
 [-0.0728656 ]
 [ 0.06236043]
 [-0.20833471]
 [ 0.18233962]
 [-0.2752246 ]
 [ 0.32435295]
 [ 0.3082867 ]
 [-0.22918545]
 [ 0.23761018]
 [-0.02930588]
 [ 0.03904251]
 [ 0.16301887]
 [-0.10969889]
 [-0.00532657]
 [-0.06466089]
 [-0.4090752 ]
 [-0.34334546]
 [ 0.00761653]
 [-0.07159244]
 [-0.12596396]
 [-0.0218397 ]
 [ 0.18386489]
 [ 0.13255851]
 [ 0.345331  ]
 [ 0.2628821 ]
 [-0.08460308]
 [-0.28350946]
 [-0.31457952]]
[[0.59476054]]
[[-0.5133526  -0.3623111  -0.644995   -0.2886528   0.260939   -0.6675719
  -0.09091926  0.06148771  0.7849308  -0.6831617 ]]
[[ 0.07141563]
 [ 0.06646746]
 [-0.24296738]
 [ 0.04563309]
 [ 0.03543039]
 [ 0.1456858 ]
 [ 0.0079827 ]
 [-0.15728371]
 [-0.14957902]
 [-0.16195863]
 [ 0.20788278]
 [-0.3321032 ]
 [-0.17563356]
 [ 0.19530654]
 [ 0.35613787]
 [-0.03535181]
 [-0.33136362]
 [ 0.1778394 ]
 [-0.11153125]
 [-0.25654945]
 [ 0.01616301]
 [-0.07573546]
 [ 0.13827413]
 [ 0.34363672]
 [-0.03134353]
 [ 0.06343375]
 [ 0.31873623]
 [ 0.35511073]
 [-0.531567  ]
 [ 0.01841409]
 [ 0.16427884]
 [ 0.06667102]
 [-0.21743664]
 [ 0.20460504]
 [-0.0249406 ]
 [ 0.04215085]
 [ 0.10283306]
 [ 0.14996292]
 [-0.30934596]
 [-0.22909229]
 [ 0.16449527]
 [-0.07942029]
 [-0.24481772]
 [ 0.14369585]
 [-0.35045332]
 [-0.3661441 ]
 [ 0.03829872]
 [-0.07632681]
 [-0.04266962]]
[[0.4624354]]
[[ 0.09791911 -0.78887045  0.8281806  -0.4149947  -0.54996246 -0.60440695
  -0.3512802  -0.53628236 -0.816287    0.13236493]]
